{"ip":0,"fr":60,"v":"5.1.20","assets":[],"layers":[{"ty":4,"nm":"CiaoFistBump-06","ip":0,"st":0,"ind":3,"hix":1,"ks":{"o":{"a":1,"k":[{"t":0,"s":[0],"e":[0],"i":{"x":[1],"y":[1]},"o":{"x":[0],"y":[0]}},{"t":32,"s":[0],"e":[100],"i":{"x":[0.68],"y":[0.53]},"o":{"x":[0.55],"y":[0.085]}},{"t":37,"s":[100],"e":[100],"i":{"x":[1],"y":[1]},"o":{"x":[0],"y":[0]}},{"t":40,"s":[100],"e":[0],"i":{"x":[0.745],"y":[0.715]},"o":{"x":[0.47],"y":[0]}},{"t":66}]},"or":{"a":0,"k":[0,0,0]},"a":{"a":0,"k":[59.5,54.5,0]},"p":{"s":true,"x":{"a":1,"k":[{"t":0,"s":[271],"e":[271],"i":{"x":[1],"y":[1]},"o":{"x":[0],"y":[0]}},{"t":36}]},"y":{"a":1,"k":[{"t":0,"s":[141.5],"e":[141.5],"i":{"x":[1],"y":[1]},"o":{"x":[0],"y":[0]}},{"t":24,"s":[141.5],"e":[141.5],"i":{"x":[1],"y":[1]},"o":{"x":[0],"y":[0]}},{"t":36}]}},"rx":{"a":0,"k":0},"ry":{"a":0,"k":0},"rz":{"a":0,"k":0},"s":{"a":0,"k":[100,100,100]}},"shapes":[{"ty":"gr","it":[{"ty":"sh","ks":{"a":0,"k":{"c":true,"v":[[72.267,60.292],[73.13499999999999,60.996],[75.234,60.777],[84.982,48.758],[84.763,46.659000000000006],[83.89500000000001,45.955000000000005],[81.796,46.17400000000001],[72.048,58.193000000000005]],"i":[[-0.6400000000000006,-0.5189999999999984],[0,0],[-0.5190000000000055,0.6400000000000006],[0,0],[0.6400000000000006,0.5189999999999984],[0,0],[0.5190000000000055,-0.6400000000000006],[0,0]],"o":[[0,0],[0.6400000000000006,0.5189999999999984],[0,0],[0.5190000000000055,-0.6400000000000006],[0,0],[-0.6400000000000006,-0.5189999999999984],[0,0],[-0.5190000000000055,0.6399999999999935]]}}},{"ty":"st","o":{"a":0,"k":0},"w":{"a":0,"k":0},"c":{"a":0,"k":[0,0,0,0]},"lc":3,"lj":1},{"ty":"fl","o":{"a":0,"k":100},"r":1,"c":{"a":0,"k":[0.6901960784313725,0.7254901960784313,0.8705882352941177,1]}},{"ty":"tr","o":{"a":0,"k":100},"a":{"a":0,"k":[0,0]},"s":{"a":0,"k":[100,100]},"p":{"a":0,"k":[0,0]},"r":{"a":0,"k":0}}]},{"ty":"gr","it":[{"ty":"sh","ks":{"a":0,"k":{"c":true,"v":[[56.048,60.292],[55.18,60.996],[53.081,60.777],[43.333000000000006,48.758],[43.55200000000001,46.659000000000006],[44.42000000000001,45.955000000000005],[46.519000000000005,46.17400000000001],[56.267,58.193000000000005]],"i":[[0.6400000000000006,-0.5189999999999984],[0,0],[0.5189999999999984,0.6400000000000006],[0,0],[-0.6400000000000006,0.5189999999999984],[0,0],[-0.5189999999999984,-0.6400000000000006],[0,0]],"o":[[0,0],[-0.6400000000000006,0.5189999999999984],[0,0],[-0.5189999999999984,-0.6400000000000006],[0,0],[0.6400000000000006,-0.5189999999999984],[0,0],[0.5189999999999984,0.6399999999999935]]}}},{"ty":"st","o":{"a":0,"k":0},"w":{"a":0,"k":0},"c":{"a":0,"k":[0,0,0,0]},"lc":3,"lj":1},{"ty":"fl","o":{"a":0,"k":100},"r":1,"c":{"a":0,"k":[0.6901960784313725,0.7254901960784313,0.8705882352941177,1]}},{"ty":"tr","o":{"a":0,"k":100},"a":{"a":0,"k":[0,0]},"s":{"a":0,"k":[100,100]},"p":{"a":0,"k":[0,0]},"r":{"a":0,"k":0}}]},{"ty":"gr","it":[{"ty":"sh","ks":{"a":0,"k":{"c":true,"v":[[64.716,58.603],[63.599,58.603],[62.107,57.111000000000004],[62.107,41.636],[63.599,40.144000000000005],[64.716,40.144000000000005],[66.208,41.636],[66.208,57.111000000000004]],"i":[[0.8250000000000028,0],[0,0],[0,0.8239999999999981],[0,0],[-0.8239999999999981,0],[0,0],[0,-0.8239999999999981],[0,0]],"o":[[0,0],[-0.8239999999999981,0],[0,0],[0,-0.8239999999999981],[0,0],[0.8239999999999981,0],[0,0],[0.0010000000000047748,0.8239999999999981]]}}},{"ty":"st","o":{"a":0,"k":0},"w":{"a":0,"k":0},"c":{"a":0,"k":[0,0,0,0]},"lc":3,"lj":1},{"ty":"fl","o":{"a":0,"k":100},"r":1,"c":{"a":0,"k":[0.6901960784313725,0.7254901960784313,0.8705882352941177,1]}},{"ty":"tr","o":{"a":0,"k":100},"a":{"a":0,"k":[0,0]},"s":{"a":0,"k":[100,100]},"p":{"a":0,"k":[0,0]},"r":{"a":0,"k":0}}]}],"op":66},{"ty":4,"nm":"CiaoFistBump-04","ip":0,"st":0,"ind":2,"hix":2,"ks":{"o":{"a":0,"k":100},"or":{"a":0,"k":[0,0,0]},"a":{"a":0,"k":[94.7185,96.7025,0]},"p":{"s":true,"x":{"a":1,"k":[{"t":0,"s":[455.28149999999994],"e":[349.486],"i":{"x":[0.675],"y":[0.19]},"o":{"x":[0.55],"y":[0.055]}},{"t":36,"s":[349.486],"e":[455.28150000000005],"i":{"x":[0.355],"y":[1]},"o":{"x":[0.215],"y":[0.61]}},{"t":66}]},"y":{"a":0,"k":201.2975}},"rx":{"a":0,"k":0},"ry":{"a":0,"k":0},"rz":{"a":0,"k":0},"s":{"a":0,"k":[100,100,100]}},"shapes":[{"ty":"gr","it":[{"ty":"sh","ks":{"a":0,"k":{"c":true,"v":[[139.359,127.383],[132.23600000000002,134.376],[125.32000000000002,127.421],[132.26900000000003,120.33000000000001]],"i":[[0.0049999999999954525,-3.8969999999999914],[3.9609999999999843,0.01999999999998181],[0.04999999999999716,3.7879999999999967],[-3.7730000000000246,0.013999999999995794]],"o":[[-0.0049999999999954525,3.9129999999999967],[-3.7350000000000136,-0.019000000000005457],[-0.04999999999999716,-3.7849999999999966],[3.9079999999999586,-0.014000000000010004]]}}},{"ty":"st","o":{"a":0,"k":0},"w":{"a":0,"k":0},"c":{"a":0,"k":[0,0,0,0]},"lc":3,"lj":1},{"ty":"fl","o":{"a":0,"k":100},"r":1,"c":{"a":0,"k":[0.6901960784313725,0.7254901960784313,0.8705882352941177,1]}},{"ty":"tr","o":{"a":0,"k":100},"a":{"a":0,"k":[0,0]},"s":{"a":0,"k":[100,100]},"p":{"a":0,"k":[0,0]},"r":{"a":0,"k":0}}]},{"ty":"gr","it":[{"ty":"sh","ks":{"a":0,"k":{"c":true,"v":[[43.936,60.665],[52.766,60.667],[54.833,60.714],[58.421,62.129],[57.49,64.962],[53.383,74.682],[52.605000000000004,77.06700000000001],[49.644000000000005,77.248],[34.60600000000001,77.26],[28.38500000000001,75.418],[24.92300000000001,67.57700000000001],[31.42000000000001,60.98900000000001],[34.00200000000001,60.65600000000001]],"i":[[-3.311,0],[-2.9439999999999955,-0.0040000000000048885],[-0.6779999999999973,-0.09299999999999642],[-0.713000000000001,-1.0549999999999997],[0.3930000000000007,-0.9460000000000122],[1.3440000000000012,-3.25],[0.5300000000000011,-0.28700000000000614],[1.0060000000000002,-0.000999999999990564],[5.012999999999998,-0.027000000000001023],[1.8440000000000012,1.3269999999999982],[-0.6419999999999995,3.303999999999988],[-3.3500000000000014,1.0219999999999985],[-0.8819999999999979,-0.006000000000000227]],"o":[[2.942999999999998,0],[0.6899999999999977,0.0009999999999976694],[1.3179999999999978,0.18200000000000216],[0.4799999999999969,0.7100000000000009],[-1.350999999999999,3.2480000000000047],[-0.32800000000000296,0.7930000000000064],[-0.7890000000000015,0.4270000000000067],[-5.012999999999998,0.007999999999995566],[-2.2719999999999985,0.012000000000000455],[-2.6709999999999994,-1.9240000000000066],[0.6870000000000012,-3.534000000000006],[0.8350000000000009,-0.25500000000000256],[3.3119999999999905,0.020999999999986585]]}}},{"ty":"st","o":{"a":0,"k":0},"w":{"a":0,"k":0},"c":{"a":0,"k":[0,0,0,0]},"lc":3,"lj":1},{"ty":"fl","o":{"a":0,"k":100},"r":1,"c":{"a":0,"k":[0.9686274509803922,0.9803921568627451,0.984313725490196,1]}},{"ty":"tr","o":{"a":0,"k":100},"a":{"a":0,"k":[0,0]},"s":{"a":0,"k":[100,100]},"p":{"a":0,"k":[0,0]},"r":{"a":0,"k":0}}]},{"ty":"gr","it":[{"ty":"sh","ks":{"a":0,"k":{"c":true,"v":[[49,101.803],[59.756,101.824],[67.599,107.585],[60.667,116.999],[56.551,117.271],[39.443,117.271],[32.739,115.18900000000001],[33.090999999999994,103.49900000000001],[39.89399999999999,101.68800000000002],[48.99999999999999,101.68900000000002]],"i":[[0,-0.0379999999999967],[-3.5829999999999984,-0.09600000000000364],[-0.8910000000000053,-2.9879999999999995],[4.966999999999999,-1.0040000000000049],[1.3789999999999978,0.000999999999990564],[5.703000000000003,-0.007999999999995566],[2.0020000000000024,1.4599999999999937],[-4.359999999999996,2.843999999999994],[-2.4309999999999974,-0.005000000000009663],[-3.0350000000000037,0]],"o":[[3.585000000000001,0],[3.4540000000000006,0.09300000000000352],[1.269999999999996,4.256],[-1.3639999999999972,0.27599999999999625],[-5.703000000000003,-0.006000000000000227],[-2.4549999999999983,0.0030000000000001137],[-4.189,-3.0559999999999974],[2.0799999999999983,-1.3559999999999945],[3.0349999999999966,0.006000000000000227],[7.105427357601002e-15,0.03799999999998249]]}}},{"ty":"st","o":{"a":0,"k":0},"w":{"a":0,"k":0},"c":{"a":0,"k":[0,0,0,0]},"lc":3,"lj":1},{"ty":"fl","o":{"a":0,"k":100},"r":1,"c":{"a":0,"k":[0.9686274509803922,0.9803921568627451,0.984313725490196,1]}},{"ty":"tr","o":{"a":0,"k":100},"a":{"a":0,"k":[0,0]},"s":{"a":0,"k":[100,100]},"p":{"a":0,"k":[0,0]},"r":{"a":0,"k":0}}]},{"ty":"gr","it":[{"ty":"sh","ks":{"a":0,"k":{"c":true,"v":[[58.215,136.863],[48.282000000000004,136.855],[41.784000000000006,134.584],[43.495000000000005,122.29],[48.542,121.129],[67.581,121.131],[74.459,123.51],[72.632,135.721],[67.596,136.877]],"i":[[3.1269999999999953,0],[3.311,0.03200000000001069],[1.8969999999999985,1.4939999999999998],[-5.183,2.4479999999999933],[-1.7779999999999987,-0.0030000000000001137],[-6.346000000000004,0.009000000000000341],[-1.956000000000003,-1.6400000000000006],[5.147999999999996,-2.5190000000000055],[1.7890000000000015,0.025999999999982037]],"o":[[-3.311,0],[-2.4100000000000037,-0.02400000000000091],[-4.369,-3.4410000000000025],[1.5940000000000012,-0.7530000000000001],[6.346000000000004,0.01099999999999568],[2.573999999999998,-0.0040000000000048885],[4.260999999999996,3.5720000000000027],[-1.581000000000003,0.7740000000000009],[-3.1270000000000095,-0.04800000000000182]]}}},{"ty":"st","o":{"a":0,"k":0},"w":{"a":0,"k":0},"c":{"a":0,"k":[0,0,0,0]},"lc":3,"lj":1},{"ty":"fl","o":{"a":0,"k":100},"r":1,"c":{"a":0,"k":[0.9686274509803922,0.9803921568627451,0.984313725490196,1]}},{"ty":"tr","o":{"a":0,"k":100},"a":{"a":0,"k":[0,0]},"s":{"a":0,"k":[100,100]},"p":{"a":0,"k":[0,0]},"r":{"a":0,"k":0}}]},{"ty":"gr","it":[{"ty":"sh","ks":{"a":0,"k":{"c":true,"v":[[43.623,97.685],[32.873999999999995,97.639],[25.548999999999996,86.24799999999999],[34.06699999999999,81.16099999999999],[52.407,81.11099999999999],[53.519999999999996,81.65799999999999],[61.672,87.69399999999999],[62.955,89.36099999999999],[54.647999999999996,97.64999999999999]],"i":[[3.676000000000002,0.0010000000000047748],[3.5690000000000026,0.23400000000000887],[-2.7070000000000007,5.6200000000000045],[-3.698999999999998,0.08500000000000796],[-6.114000000000004,0.009999999999990905],[-0.27899999999999636,-0.5189999999999912],[-3.4339999999999975,-1.0030000000000001],[0,-0.9780000000000086],[4.672000000000004,-0.23399999999999466]],"o":[[-3.584000000000003,-0.001999999999995339],[-5.2379999999999995,-0.3439999999999941],[1.6829999999999998,-3.492999999999995],[6.109999999999999,-0.14100000000000534],[0.4750000000000014,-0.0010000000000047748],[1.7650000000000006,3.280000000000001],[0.9849999999999994,0.2879999999999967],[0.0020000000000024443,4.2549999999999955],[-3.665999999999997,0.18300000000000693]]}}},{"ty":"st","o":{"a":0,"k":0},"w":{"a":0,"k":0},"c":{"a":0,"k":[0,0,0,0]},"lc":3,"lj":1},{"ty":"fl","o":{"a":0,"k":100},"r":1,"c":{"a":0,"k":[0.9686274509803922,0.9803921568627451,0.984313725490196,1]}},{"ty":"tr","o":{"a":0,"k":100},"a":{"a":0,"k":[0,0]},"s":{"a":0,"k":[100,100]},"p":{"a":0,"k":[0,0]},"r":{"a":0,"k":0}}]},{"ty":"gr","it":[{"ty":"sh","ks":{"a":0,"k":{"c":true,"v":[[120.245,107.059],[120.247,83.188],[126.844,76.57600000000001],[157.476,76.54],[163.989,83.05600000000001],[163.988,131.074],[157.416,137.67200000000003],[126.646,137.64800000000002],[120.252,131.34400000000002]],"i":[[0,8.094999999999999],[-0.006999999999990791,7.956999999999994],[-4.358999999999995,0],[-10.210000000000008,0.10500000000000398],[0.025000000000005684,-3.680000000000007],[-0.10699999999999932,-16.004999999999995],[4.027000000000015,0.026999999999986812],[10.255999999999986,0.0020000000000095497],[0.010000000000005116,3.9000000000000057]],"o":[[0,-7.956999999999994],[0.0040000000000048885,-4.3799999999999955],[10.211000000000013,-0.0010000000000047748],[3.913000000000011,-0.04000000000000625],[-0.10699999999999932,16.004999999999995],[0.02600000000001046,3.8170000000000073],[-10.256,-0.06999999999999318],[-3.9170000000000016,-0.0010000000000047748],[-0.02199999999999136,-8.095000000000027]]}}},{"ty":"st","o":{"a":0,"k":0},"w":{"a":0,"k":0},"c":{"a":0,"k":[0,0,0,0]},"lc":3,"lj":1},{"ty":"fl","o":{"a":0,"k":100},"r":1,"c":{"a":0,"k":[0.9686274509803922,0.9803921568627451,0.984313725490196,1]}},{"ty":"tr","o":{"a":0,"k":100},"a":{"a":0,"k":[0,0]},"s":{"a":0,"k":[100,100]},"p":{"a":0,"k":[0,0]},"r":{"a":0,"k":0}}]},{"ty":"gr","it":[{"ty":"sh","ks":{"a":0,"k":{"c":true,"v":[[68.472,117.179],[62.77499999999999,98.392],[64.74199999999999,96.008],[66.835,89.04599999999999],[67.702,87.91799999999999],[76.65299999999999,81.246],[79.30399999999999,76.52199999999999],[85.743,91.999],[108.798,108.69999999999999],[109.718,108.97399999999999],[112.221,107.597],[110.857,105.205],[109.678,104.845],[91.9,93.664],[83.35900000000001,76.476],[82.206,71.252],[80.462,69.05499999999999],[78.081,70.55399999999999],[73.217,79.31499999999998],[58.302,81.60399999999998],[57.047,76.15199999999999],[66.795,52.90199999999999],[73.598,48.441999999999986],[91.8,48.41899999999998],[98.90599999999999,52.13599999999998],[114.25899999999999,71.42199999999998],[117.36799999999998,76.44099999999999],[117.44999999999997,77.93799999999999],[116.26499999999997,83.10199999999999],[116.35199999999998,131.113],[113.81099999999998,135.313],[107.90099999999998,136.86999999999998],[77.78099999999998,136.86299999999997],[79.79399999999998,124.04599999999996]],"i":[[4.8940000000000055,0.6039999999999992],[9.25,3.531000000000006],[-0.5969999999999942,0.8250000000000028],[0.17900000000000205,2.567999999999998],[-0.7580000000000098,0.15699999999999648],[-1.9819999999999993,3.569999999999993],[-0.9679999999999893,1.7240000000000038],[-2.9820000000000135,-4.7109999999999985],[-9.670000000000002,-2.826999999999998],[-0.3119999999999976,-0.06300000000000239],[-0.2530000000000001,1.0519999999999925],[1.0090000000000003,0.4679999999999893],[0.394999999999996,0.11599999999999966],[4.748999999999995,5.578000000000003],[1.6869999999999976,6.301000000000002],[0.3650000000000091,1.7450000000000045],[1.1899999999999977,0.1629999999999967],[0.5330000000000013,-0.9739999999999895],[1.538000000000011,-2.9639999999999986],[5.037999999999997,4.408000000000001],[-0.9949999999999974,2.2630000000000052],[-3.416000000000004,7.677],[-3.0289999999999964,0.14099999999999824],[-6.064999999999998,-0.20999999999999375],[-1.8049999999999926,-2.2419999999999973],[-5.0789999999999935,-6.459000000000003],[-0.9379999999999882,-1.7360000000000042],[0.3510000000000133,-0.5739999999999981],[0.0010000000000047748,-1.7999999999999972],[-0.18000000000000682,-16.00200000000001],[1.7079999999999984,-0.8899999999999864],[2.117999999999995,0.0030000000000143245],[10.171000000000006,0],[2.455999999999989,4.670000000000016]],"o":[[6.097999999999999,-6.957999999999998],[0.6709999999999994,-0.8080000000000069],[1.5010000000000048,-2.069999999999993],[-0.05200000000000671,-0.7510000000000048],[4.004000000000005,-0.8269999999999982],[0.8349999999999937,-1.5040000000000049],[1.4779999999999944,5.653000000000006],[5.471999999999994,8.644000000000005],[0.30700000000000216,0.09000000000000341],[1.1740000000000066,0.23799999999999955],[0.2849999999999966,-1.1859999999999928],[-0.3689999999999998,-0.17100000000000648],[-6.978999999999999,-2.0529999999999973],[-4.266000000000005,-5.0120000000000005],[-0.4609999999999985,-1.7210000000000036],[-0.21699999999999875,-1.0390000000000015],[-1.1290000000000049,-0.15500000000000114],[-1.6029999999999944,2.9309999999999974],[-2.793999999999997,5.385000000000005],[-1.7830000000000013,-1.5600000000000023],[3.3840000000000003,-7.694999999999993],[1.2420000000000044,-2.789999999999999],[6.061999999999998,-0.28300000000000125],[2.8840000000000003,0.10000000000000142],[5.153000000000006,6.399999999999999],[1.2139999999999986,1.5450000000000017],[0.2780000000000058,0.5150000000000006],[-0.9639999999999986,1.578000000000003],[-0.01300000000000523,16.004000000000005],[0.02599999999999625,2.2990000000000066],[-1.8559999999999945,0.967000000000013],[-9.974999999999994,-0.014999999999986358],[3.361000000000004,-3.9350000000000023],[-2.359999999999985,-4.484999999999957]]}}},{"ty":"st","o":{"a":0,"k":0},"w":{"a":0,"k":0},"c":{"a":0,"k":[0,0,0,0]},"lc":3,"lj":1},{"ty":"fl","o":{"a":0,"k":100},"r":1,"c":{"a":0,"k":[0.9686274509803922,0.9803921568627451,0.984313725490196,1]}},{"ty":"tr","o":{"a":0,"k":100},"a":{"a":0,"k":[0,0]},"s":{"a":0,"k":[100,100]},"p":{"a":0,"k":[0,0]},"r":{"a":0,"k":0}}]},{"ty":"gr","it":[{"ty":"sh","ks":{"a":0,"k":{"c":true,"v":[[38.402,121.188],[26.295,112.681],[29.779000000000003,101.073],[27.492000000000004,99.93199999999999],[26.126000000000005,79.79799999999999],[26.073000000000004,78.52899999999998],[21.151000000000003,66.56099999999998],[30.965000000000003,57.10999999999998],[33.412000000000006,56.772999999999975],[55.06400000000001,56.84099999999997],[59.147000000000006,57.931999999999974],[60.70100000000001,57.27199999999998],[62.839000000000006,52.07599999999998],[74.242,44.41399999999998],[90.524,44.39999999999998],[101.588,49.27199999999998],[117.72,69.51799999999997],[120.204,73.47399999999998],[121.41999999999999,73.88199999999998],[126.695,72.59799999999997],[157.603,72.59499999999997],[167.863,82.77299999999997],[167.862,131.47999999999996],[157.679,141.55199999999996],[126.495,141.55899999999997],[118.527,137.94799999999998],[117.129,137.81199999999998],[107.85300000000001,140.76999999999998],[69.49800000000002,140.71599999999998],[47.42400000000002,140.677],[36.24300000000002,133.846]],"i":[[-3.4780000000000015,3.8759999999999906],[1.9249999999999972,5.555000000000007],[-3.4650000000000034,3.25],[0.7349999999999994,0.40100000000001046],[-7.578000000000003,5.516999999999996],[0.6799999999999997,0.4969999999999999],[-1.0869999999999997,4.980000000000004],[-5.096,1.2460000000000022],[-0.818000000000005,0.015000000000000568],[-7.215000000000003,-0.3119999999999976],[-1.2530000000000001,-0.6869999999999976],[-0.31800000000000495,0.8199999999999932],[-0.7160000000000011,1.7309999999999945],[-4.998000000000005,0.018000000000000682],[-5.4269999999999925,0.04000000000000625],[-2.8149999999999977,-3.421999999999997],[-5.134,-6.940999999999995],[-0.7909999999999968,-1.3410000000000082],[-0.695999999999998,0.45999999999999375],[-1.8460000000000036,0.0040000000000048885],[-10.303000000000026,-0.027000000000001023],[-0.013999999999981583,-6.054999999999993],[0.04099999999999682,-16.23599999999999],[6.007000000000005,-0.003999999999990678],[10.394999999999982,-0.01300000000000523],[2.0360000000000014,2.5120000000000005],[0.5699999999999932,-0.3849999999999909],[3.4209999999999923,0.009000000000014552],[12.784999999999997,0.009999999999990905],[7.352999999999994,0.1939999999999884],[2.290999999999997,4.454999999999984]],"o":[[-5.640999999999998,-0.7319999999999993],[-1.5650000000000013,-4.516000000000005],[-0.7880000000000003,-0.3919999999999959],[-8.241,-4.5049999999999955],[0.8649999999999984,-0.6299999999999955],[-4.074000000000002,-2.9749999999999943],[1.1359999999999992,-5.204000000000001],[0.7970000000000006,-0.19500000000000028],[7.2180000000000035,-0.12899999999999778],[1.4149999999999991,0.06099999999999994],[0.9239999999999995,0.5060000000000002],[0.6749999999999972,-1.7469999999999999],[1.9010000000000034,-4.597999999999999],[5.427000000000007,-0.020000000000003126],[4.436000000000007,-0.031999999999996476],[5.483000000000004,6.661999999999999],[0.9230000000000018,1.2489999999999952],[0.3190000000000026,0.5409999999999968],[1.5889999999999986,-1.0499999999999972],[10.301999999999992,-0.02200000000000557],[6.068000000000012,0.016000000000005343],[0.03899999999998727,16.236000000000004],[-0.014999999999986358,6.02000000000001],[-10.39500000000001,0.008000000000009777],[-3.215999999999994,0.003999999999990678],[-0.5349999999999966,-0.6599999999999966],[-2.7960000000000065,1.891999999999996],[-12.784999999999997,-0.03299999999998704],[-7.357999999999997,-0.006000000000000227],[-4.899999999999999,-0.12899999999999068],[-2.343000000000025,-4.5589999999999975]]}}},{"ty":"st","o":{"a":0,"k":0},"w":{"a":0,"k":0},"c":{"a":0,"k":[0,0,0,0]},"lc":3,"lj":1},{"ty":"fl","o":{"a":0,"k":100},"r":1,"c":{"a":0,"k":[0.6901960784313725,0.7254901960784313,0.8705882352941177,1]}},{"ty":"tr","o":{"a":0,"k":100},"a":{"a":0,"k":[0,0]},"s":{"a":0,"k":[100,100]},"p":{"a":0,"k":[0,0]},"r":{"a":0,"k":0}}]}],"op":66},{"ty":4,"nm":"CiaoFistBump-03","ip":0,"st":0,"ind":1,"hix":3,"ks":{"o":{"a":0,"k":100},"or":{"a":0,"k":[0,0,0]},"a":{"a":0,"k":[95.5,97.5,0]},"p":{"s":true,"x":{"a":1,"k":[{"t":0,"s":[94.376],"e":[203.106],"i":{"x":[0.675],"y":[0.19]},"o":{"x":[0.55],"y":[0.055]}},{"t":36,"s":[203.106],"e":[95.5],"i":{"x":[0.355],"y":[1]},"o":{"x":[0.215],"y":[0.61]}},{"t":66}]},"y":{"a":0,"k":200.00000000000003}},"rx":{"a":0,"k":0},"ry":{"a":0,"k":0},"rz":{"a":0,"k":0},"s":{"a":0,"k":[100,100]}},"shapes":[{"ty":"gr","it":[{"ty":"sh","ks":{"a":0,"k":{"c":true,"v":[[50.641,130.984],[57.763999999999996,137.977],[64.67999999999999,131.022],[57.730999999999995,123.931]],"i":[[-0.0049999999999954525,-3.8980000000000103],[-3.9609999999999985,0.020000000000010232],[-0.04999999999999716,3.788000000000011],[3.772999999999996,0.013999999999995794]],"o":[[0.005000000000002558,3.913000000000011],[3.7349999999999994,-0.019000000000005457],[0.04999999999999716,-3.7849999999999966],[-3.907999999999994,-0.015000000000000568]]}}},{"ty":"st","o":{"a":0,"k":0},"w":{"a":0,"k":0},"c":{"a":0,"k":[0,0,0,0]},"lc":3,"lj":1},{"ty":"fl","o":{"a":0,"k":100},"r":1,"c":{"a":0,"k":[0.6901960784313725,0.7254901960784313,0.8705882352941177,1]}},{"ty":"tr","o":{"a":0,"k":100},"a":{"a":0,"k":[0,0]},"s":{"a":0,"k":[100,100]},"p":{"a":0,"k":[0,0]},"r":{"a":0,"k":0}}]},{"ty":"gr","it":[{"ty":"sh","ks":{"a":0,"k":{"c":true,"v":[[146.064,64.265],[137.23399999999998,64.267],[135.16699999999997,64.314],[131.57899999999998,65.729],[132.51,68.562],[136.617,78.282],[137.39499999999998,80.667],[140.356,80.848],[155.394,80.86],[161.615,79.018],[165.077,71.177],[158.57999999999998,64.58900000000001],[155.998,64.25600000000001]],"i":[[3.311000000000007,0],[2.944000000000017,-0.003999999999990678],[0.6779999999999973,-0.09300000000000352],[0.7129999999999939,-1.0550000000000068],[-0.3930000000000007,-0.945999999999998],[-1.343999999999994,-3.25],[-0.5300000000000011,-0.28700000000000614],[-1.0060000000000002,-0.000999999999990564],[-5.013000000000005,-0.027000000000001023],[-1.843999999999994,1.3269999999999982],[0.6420000000000243,3.303999999999988],[3.3500000000000227,1.0219999999999914],[0.882000000000005,-0.006000000000000227]],"o":[[-2.943000000000012,0],[-0.6899999999999977,0.0010000000000047748],[-1.318000000000012,0.18200000000000216],[-0.47999999999998977,0.7099999999999937],[1.350999999999999,3.2480000000000047],[0.32800000000000296,0.7930000000000064],[0.7889999999999873,0.4270000000000067],[5.013000000000005,0.007999999999995566],[2.2719999999999914,0.012000000000000455],[2.6709999999999923,-1.9240000000000066],[-0.6870000000000118,-3.534000000000006],[-0.835000000000008,-0.25499999999999545],[-3.3119999999999834,0.02199999999999136]]}}},{"ty":"st","o":{"a":0,"k":0},"w":{"a":0,"k":0},"c":{"a":0,"k":[0,0,0,0]},"lc":3,"lj":1},{"ty":"fl","o":{"a":0,"k":100},"r":1,"c":{"a":0,"k":[0.9686274509803922,0.9803921568627451,0.984313725490196,1]}},{"ty":"tr","o":{"a":0,"k":100},"a":{"a":0,"k":[0,0]},"s":{"a":0,"k":[100,100]},"p":{"a":0,"k":[0,0]},"r":{"a":0,"k":0}}]},{"ty":"gr","it":[{"ty":"sh","ks":{"a":0,"k":{"c":true,"v":[[141,105.403],[130.244,105.424],[122.401,111.185],[129.333,120.599],[133.449,120.87100000000001],[150.55700000000002,120.87100000000001],[157.26100000000002,118.78900000000002],[156.90900000000002,107.09900000000002],[150.10600000000002,105.28800000000001],[141.00000000000003,105.28900000000002]],"i":[[0,-0.038000000000010914],[3.5829999999999984,-0.09600000000000364],[0.8910000000000053,-2.9879999999999995],[-4.966999999999999,-1.0040000000000049],[-1.379000000000019,0.000999999999990564],[-5.703000000000003,-0.007999999999995566],[-2.0020000000000095,1.4599999999999937],[4.360000000000014,2.843999999999994],[2.4310000000000116,-0.0049999999999954525],[3.0349999999999966,0]],"o":[[-3.585000000000008,0],[-3.4539999999999935,0.09300000000000352],[-1.269999999999996,4.256],[1.3640000000000043,0.27599999999999625],[5.703000000000003,-0.006000000000000227],[2.4550000000000125,0.0030000000000001137],[4.188999999999993,-3.0559999999999974],[-2.0800000000000125,-1.3559999999999945],[-3.0349999999999966,0.006000000000000227],[-2.842170943040401e-14,0.03799999999998249]]}}},{"ty":"st","o":{"a":0,"k":0},"w":{"a":0,"k":0},"c":{"a":0,"k":[0,0,0,0]},"lc":3,"lj":1},{"ty":"fl","o":{"a":0,"k":100},"r":1,"c":{"a":0,"k":[0.9686274509803922,0.9803921568627451,0.984313725490196,1]}},{"ty":"tr","o":{"a":0,"k":100},"a":{"a":0,"k":[0,0]},"s":{"a":0,"k":[100,100]},"p":{"a":0,"k":[0,0]},"r":{"a":0,"k":0}}]},{"ty":"gr","it":[{"ty":"sh","ks":{"a":0,"k":{"c":true,"v":[[131.785,140.463],[141.718,140.45499999999998],[148.21599999999998,138.184],[146.50499999999997,125.89],[141.45799999999997,124.729],[122.41899999999997,124.731],[115.54099999999997,127.11],[117.36799999999997,139.321],[122.40399999999997,140.477]],"i":[[-3.1270000000000095,0],[-3.311000000000007,0.03200000000001069],[-1.8969999999999914,1.4939999999999998],[5.183000000000021,2.4479999999999933],[1.7779999999999916,-0.0030000000000001137],[6.345999999999989,0.009000000000000341],[1.956000000000003,-1.6400000000000006],[-5.147999999999996,-2.5190000000000055],[-1.7890000000000015,0.025999999999982037]],"o":[[3.311000000000007,0],[2.4099999999999966,-0.02400000000000091],[4.369,-3.4410000000000025],[-1.593999999999994,-0.7530000000000001],[-6.346000000000004,0.01099999999999568],[-2.573999999999998,-0.0040000000000048885],[-4.260999999999996,3.5719999999999885],[1.581000000000003,0.7740000000000009],[3.127000000000038,-0.046999999999997044]]}}},{"ty":"st","o":{"a":0,"k":0},"w":{"a":0,"k":0},"c":{"a":0,"k":[0,0,0,0]},"lc":3,"lj":1},{"ty":"fl","o":{"a":0,"k":100},"r":1,"c":{"a":0,"k":[0.9686274509803922,0.9803921568627451,0.984313725490196,1]}},{"ty":"tr","o":{"a":0,"k":100},"a":{"a":0,"k":[0,0]},"s":{"a":0,"k":[100,100]},"p":{"a":0,"k":[0,0]},"r":{"a":0,"k":0}}]},{"ty":"gr","it":[{"ty":"sh","ks":{"a":0,"k":{"c":true,"v":[[146.377,101.285],[157.126,101.23899999999999],[164.451,89.84799999999998],[155.933,84.76099999999998],[137.593,84.71099999999998],[136.48,85.25799999999998],[128.328,91.29399999999998],[127.045,92.96099999999998],[135.352,101.24999999999999]],"i":[[-3.676000000000016,0.0010000000000047748],[-3.5689999999999884,0.23400000000000887],[2.707000000000022,5.6200000000000045],[3.6990000000000123,0.08500000000000796],[6.114000000000004,0.009999999999990905],[0.27899999999999636,-0.5189999999999912],[3.4339999999999975,-1.0030000000000001],[0,-0.9780000000000086],[-4.671999999999997,-0.23399999999999466]],"o":[[3.584000000000003,-0.001999999999995339],[5.2379999999999995,-0.3439999999999941],[-1.6829999999999927,-3.492999999999995],[-6.110000000000014,-0.14100000000000534],[-0.4749999999999943,-0.0010000000000047748],[-1.7649999999999864,3.280000000000001],[-0.9849999999999994,0.2879999999999967],[-0.001999999999995339,4.2549999999999955],[3.665999999999997,0.18300000000002115]]}}},{"ty":"st","o":{"a":0,"k":0},"w":{"a":0,"k":0},"c":{"a":0,"k":[0,0,0,0]},"lc":3,"lj":1},{"ty":"fl","o":{"a":0,"k":100},"r":1,"c":{"a":0,"k":[0.9686274509803922,0.9803921568627451,0.984313725490196,1]}},{"ty":"tr","o":{"a":0,"k":100},"a":{"a":0,"k":[0,0]},"s":{"a":0,"k":[100,100]},"p":{"a":0,"k":[0,0]},"r":{"a":0,"k":0}}]},{"ty":"gr","it":[{"ty":"sh","ks":{"a":0,"k":{"c":true,"v":[[69.755,110.659],[69.753,86.78800000000001],[63.156,80.17600000000002],[32.524,80.14000000000001],[26.011000000000003,86.65600000000002],[26.012000000000004,134.67400000000004],[32.584,141.27200000000005],[63.354,141.24800000000005],[69.748,134.94400000000005]],"i":[[0,8.094999999999999],[0.006999999999990791,7.956999999999994],[4.359000000000002,0],[10.209999999999994,0.10500000000000398],[-0.02500000000000213,-3.680000000000007],[0.10699999999999932,-16.005000000000024],[-4.027000000000001,0.026999999999986812],[-10.256,0.0020000000000095497],[-0.010000000000005116,3.9000000000000057]],"o":[[0,-7.956999999999994],[-0.0040000000000048885,-4.3799999999999955],[-10.210999999999999,-0.0010000000000047748],[-3.9130000000000003,-0.04000000000000625],[0.10699999999999932,16.004999999999995],[-0.0259999999999998,3.8170000000000073],[10.256,-0.06999999999999318],[3.9170000000000016,-0.0010000000000047748],[0.02199999999999136,-8.095000000000041]]}}},{"ty":"st","o":{"a":0,"k":0},"w":{"a":0,"k":0},"c":{"a":0,"k":[0,0,0,0]},"lc":3,"lj":1},{"ty":"fl","o":{"a":0,"k":100},"r":1,"c":{"a":0,"k":[0.9686274509803922,0.9803921568627451,0.984313725490196,1]}},{"ty":"tr","o":{"a":0,"k":100},"a":{"a":0,"k":[0,0]},"s":{"a":0,"k":[100,100]},"p":{"a":0,"k":[0,0]},"r":{"a":0,"k":0}}]},{"ty":"gr","it":[{"ty":"sh","ks":{"a":0,"k":{"c":true,"v":[[121.528,120.78],[127.22500000000001,101.993],[125.25800000000001,99.609],[123.165,92.64699999999999],[122.298,91.51899999999999],[113.34700000000001,84.847],[110.69600000000001,80.12299999999999],[104.257,95.6],[81.202,112.30099999999999],[80.282,112.57499999999999],[77.779,111.198],[79.143,108.806],[80.322,108.446],[98.1,97.265],[106.64099999999999,80.077],[107.794,74.853],[109.538,72.65599999999999],[111.919,74.15499999999999],[116.783,82.91599999999998],[131.698,85.20499999999998],[132.953,79.75299999999999],[123.205,56.502999999999986],[116.402,52.042999999999985],[98.2,52.01999999999998],[91.09400000000001,55.73699999999998],[75.74100000000001,75.02299999999998],[72.63200000000002,80.04199999999999],[72.55000000000003,81.53899999999999],[73.73500000000003,86.70299999999999],[73.64800000000002,134.714],[76.18900000000002,138.914],[82.09900000000002,140.47099999999998],[112.21900000000002,140.46399999999997],[110.20600000000002,127.64699999999996]],"i":[[-4.8940000000000055,0.6039999999999992],[-9.25,3.531000000000006],[0.5969999999999942,0.8250000000000028],[-0.17900000000000205,2.567999999999998],[0.7580000000000098,0.15699999999999648],[1.9819999999999993,3.569999999999993],[0.9679999999999893,1.7240000000000038],[2.9820000000000135,-4.7109999999999985],[9.670000000000002,-2.826999999999998],[0.3119999999999976,-0.06300000000000239],[0.2530000000000001,1.0519999999999925],[-1.0090000000000003,0.4679999999999893],[-0.394999999999996,0.11599999999999966],[-4.748999999999995,5.578000000000003],[-1.6869999999999976,6.301000000000002],[-0.3650000000000091,1.7450000000000045],[-1.1899999999999977,0.1629999999999967],[-0.5330000000000013,-0.9739999999999895],[-1.538000000000011,-2.9639999999999986],[-5.038000000000011,4.408000000000001],[0.9950000000000045,2.2630000000000052],[3.416000000000011,7.6769999999999925],[3.0289999999999964,0.14099999999999824],[6.064999999999998,-0.20999999999999375],[1.8049999999999926,-2.2419999999999973],[5.0789999999999935,-6.459000000000003],[0.9379999999999882,-1.7360000000000042],[-0.3510000000000133,-0.5739999999999981],[-0.0010000000000047748,-1.7999999999999972],[0.18000000000000682,-16.00200000000001],[-1.7079999999999984,-0.8899999999999864],[-2.117999999999995,0.0030000000000143245],[-10.171000000000006,0],[-2.455999999999989,4.670000000000016]],"o":[[-6.097999999999999,-6.957999999999998],[-0.6710000000000065,-0.8080000000000069],[-1.5010000000000048,-2.069999999999993],[0.05200000000000671,-0.7510000000000048],[-4.004000000000005,-0.8269999999999982],[-0.8349999999999937,-1.5040000000000049],[-1.4779999999999944,5.653000000000006],[-5.471999999999994,8.644000000000005],[-0.30700000000000216,0.09000000000000341],[-1.1740000000000066,0.23799999999999955],[-0.2849999999999966,-1.1859999999999928],[0.3689999999999998,-0.17100000000000648],[6.978999999999999,-2.0529999999999973],[4.266000000000005,-5.0120000000000005],[0.4609999999999985,-1.7210000000000036],[0.21699999999999875,-1.0390000000000015],[1.1290000000000049,-0.15500000000000114],[1.6029999999999944,2.9309999999999974],[2.793999999999997,5.385000000000005],[1.782999999999987,-1.5600000000000023],[-3.383999999999986,-7.694999999999993],[-1.2420000000000044,-2.789999999999999],[-6.061999999999998,-0.28300000000000125],[-2.8840000000000003,0.10000000000000142],[-5.153000000000006,6.399999999999999],[-1.2139999999999986,1.5450000000000017],[-0.2780000000000058,0.5150000000000006],[0.9639999999999986,1.578000000000003],[0.01300000000000523,16.004000000000005],[-0.02599999999999625,2.2990000000000066],[1.8559999999999945,0.967000000000013],[9.974999999999994,-0.014999999999986358],[-3.361000000000004,-3.9350000000000023],[2.359999999999985,-4.485999999999962]]}}},{"ty":"st","o":{"a":0,"k":0},"w":{"a":0,"k":0},"c":{"a":0,"k":[0,0,0,0]},"lc":3,"lj":1},{"ty":"fl","o":{"a":0,"k":100},"r":1,"c":{"a":0,"k":[0.9686274509803922,0.9803921568627451,0.984313725490196,1]}},{"ty":"tr","o":{"a":0,"k":100},"a":{"a":0,"k":[0,0]},"s":{"a":0,"k":[100,100]},"p":{"a":0,"k":[0,0]},"r":{"a":0,"k":0}}]},{"ty":"gr","it":[{"ty":"sh","ks":{"a":0,"k":{"c":true,"v":[[151.598,124.789],[163.705,116.282],[160.221,104.67399999999999],[162.508,103.53299999999999],[163.87400000000002,83.39899999999999],[163.92700000000002,82.12999999999998],[168.84900000000002,70.16199999999998],[159.03500000000003,60.71099999999998],[156.58800000000002,60.373999999999974],[134.93600000000004,60.44199999999997],[130.85300000000004,61.53299999999997],[129.29900000000004,60.872999999999976],[127.16100000000003,55.67699999999998],[115.75800000000002,48.01499999999998],[99.47600000000003,48.000999999999976],[88.41200000000003,52.872999999999976],[72.28000000000003,73.11899999999997],[69.79600000000003,77.07499999999997],[68.58000000000004,77.48299999999998],[63.30500000000004,76.19899999999997],[32.39700000000004,76.19599999999997],[22.136000000000042,86.37399999999997],[22.137000000000043,135.08099999999996],[32.32000000000004,145.15299999999996],[63.50400000000005,145.15999999999997],[71.47200000000005,141.54899999999998],[72.87000000000005,141.41299999999998],[82.14600000000004,144.37099999999998],[120.50100000000003,144.31699999999998],[142.57500000000005,144.278],[153.75600000000006,137.447]],"i":[[3.47799999999998,3.874999999999986],[-1.9250000000000114,5.555000000000007],[3.4650000000000034,3.25],[-0.7350000000000136,0.40100000000001046],[7.5779999999999745,5.516999999999996],[-0.6800000000000068,0.4969999999999999],[1.0870000000000175,4.980000000000004],[5.096000000000004,1.2460000000000022],[0.818000000000012,0.015000000000000568],[7.214999999999975,-0.3119999999999976],[1.252999999999986,-0.6869999999999976],[0.31800000000001205,0.8199999999999932],[0.7160000000000082,1.7309999999999945],[4.998000000000005,0.018000000000000682],[5.4269999999999925,0.04000000000000625],[2.8149999999999977,-3.421999999999997],[5.134,-6.9410000000000025],[0.7909999999999968,-1.3410000000000082],[0.695999999999998,0.45999999999999375],[1.8459999999999965,0.0040000000000048885],[10.303000000000004,-0.027000000000001023],[0.014999999999997016,-6.054999999999993],[-0.04100000000000037,-16.23599999999999],[-6.006999999999998,-0.003999999999990678],[-10.395000000000003,-0.01300000000000523],[-2.0360000000000014,2.5120000000000005],[-0.5699999999999932,-0.3849999999999909],[-3.4209999999999923,0.009000000000014552],[-12.784999999999997,0.009999999999990905],[-7.353000000000009,0.1939999999999884],[-2.2910000000000252,4.454999999999984]],"o":[[5.640999999999991,-0.7319999999999993],[1.5649999999999977,-4.516000000000005],[0.7880000000000109,-0.3919999999999959],[8.241000000000014,-4.5049999999999955],[-0.8650000000000091,-0.6299999999999955],[4.074000000000012,-2.9749999999999943],[-1.1359999999999957,-5.2039999999999935],[-0.796999999999997,-0.19500000000000028],[-7.217999999999989,-0.12899999999999778],[-1.414999999999992,0.06099999999999994],[-0.9240000000000066,0.5060000000000002],[-0.6750000000000114,-1.7469999999999999],[-1.9009999999999962,-4.597999999999999],[-5.427000000000007,-0.020000000000003126],[-4.436000000000007,-0.031999999999996476],[-5.483000000000004,6.661999999999999],[-0.9230000000000018,1.2489999999999952],[-0.3190000000000026,0.5409999999999968],[-1.5889999999999986,-1.0499999999999972],[-10.302,-0.02200000000000557],[-6.067999999999998,0.016000000000005343],[-0.03900000000000148,16.236000000000004],[0.015000000000000568,6.02000000000001],[10.395000000000003,0.008000000000009777],[3.215999999999994,0.003999999999990678],[0.5349999999999966,-0.6599999999999966],[2.7960000000000065,1.891999999999996],[12.784999999999997,-0.03299999999998704],[7.358000000000004,-0.006000000000000227],[4.900000000000006,-0.12899999999999068],[2.3439999999999372,-4.560000000000002]]}}},{"ty":"st","o":{"a":0,"k":0},"w":{"a":0,"k":0},"c":{"a":0,"k":[0,0,0,0]},"lc":3,"lj":1},{"ty":"fl","o":{"a":0,"k":100},"r":1,"c":{"a":0,"k":[0.6901960784313725,0.7254901960784313,0.8705882352941177,1]}},{"ty":"tr","o":{"a":0,"k":100},"a":{"a":0,"k":[0,0]},"s":{"a":0,"k":[100,100]},"p":{"a":0,"k":[0,0]},"r":{"a":0,"k":0}}]}],"op":66}],"op":66,"w":550,"h":400}